Language model created by QuickLM on Fri Aug 17 18:41:04 EDT 2018
Copyright (c) 1996-2010 Carnegie Mellon University and Alexander I. Rudnicky

The model is in standard ARPA format, designed by Doug Paul while he was at MITRE.

The code that was used to produce this language model is available in Open Source.
Please visit http://www.speech.cs.cmu.edu/tools/ for more information

The (fixed) discount mass is 0.5. The backoffs are computed using the ratio method.
This model based on a corpus of 41 sentences and 52 words

\data\
ngram 1=52
ngram 2=96
ngram 3=93

\1-grams:
-0.9483 </s> -0.3010
-0.9483 <s> -0.2478
-2.2601 A -0.2962
-2.5611 ALL -0.2998
-2.5611 ARE -0.2998
-2.2601 ARM -0.2491
-2.5611 ASK -0.2986
-2.5611 ASTRO -0.2491
-2.5611 BACKWARDS -0.2491
-2.0840 BASE -0.2962
-1.6580 CANCEL -0.2790
-2.5611 CLOSE -0.2974
-2.5611 DISPLAY -0.2998
-2.0840 DOWN -0.2491
-2.5611 FOR -0.2974
-2.5611 FORWARDS -0.2491
-2.5611 GO -0.2986
-2.5611 GOALS -0.2491
-2.5611 GOOD -0.2998
-2.5611 GOODBYE -0.2491
-2.5611 GRASP -0.2974
-2.0840 GRIPPER -0.2491
-1.8621 HEAD -0.2327
-2.2601 HELLO -0.2478
-2.5611 HOW -0.2998
-2.0840 LEFT -0.2491
-2.2601 LOCATION -0.2491
-1.9590 LOOK -0.2865
-2.5611 MESSAGE -0.2491
-2.5611 MORNING -0.2491
-1.6069 MOVE -0.2877
-2.5611 NAVIGATION -0.2491
-2.0840 OBJECT -0.2491
-2.5611 OPEN -0.2974
-2.2601 PROGRAM -0.2491
-2.2601 QUESTION -0.2491
-2.2601 RAPIDPBD -0.2986
-2.5611 REACH -0.2998
-2.5611 RELEASE -0.2974
-2.0840 RIGHT -0.2491
-2.5611 RUN -0.2986
-1.9590 SAY -0.2950
-2.5611 STOP -0.2491
-2.5611 TIMER -0.2491
-2.2601 TO -0.2962
-2.0840 TORSO -0.2410
-2.5611 TUCK -0.2986
-2.2601 TURN -0.2938
-2.5611 UN-TUCK -0.2986
-2.0840 UP -0.2491
-2.5611 WAIT -0.2491
-2.5611 YOU -0.2491

\2-grams:
-1.9138 <s> ASK 0.0000
-1.0107 <s> CANCEL 0.0000
-1.9138 <s> CLOSE 0.0000
-1.9138 <s> DISPLAY 0.0000
-1.9138 <s> GO 0.0000
-1.9138 <s> GRASP 0.0000
-1.9138 <s> HELLO -0.1761
-1.3118 <s> LOOK 0.0000
-0.9596 <s> MOVE 0.0000
-1.9138 <s> OPEN 0.0000
-1.9138 <s> REACH 0.0000
-1.9138 <s> RELEASE 0.0000
-1.9138 <s> RUN 0.0000
-1.3118 <s> SAY 0.0000
-1.9138 <s> STOP 0.0000
-1.9138 <s> TUCK 0.0000
-1.6128 <s> TURN 0.0000
-1.9138 <s> UN-TUCK 0.0000
-1.9138 <s> WAIT 0.0000
-0.6021 A LOCATION 0.0000
-0.6021 A QUESTION 0.0000
-0.3010 ALL GOALS 0.0000
-0.3010 ARE YOU 0.0000
-0.3010 ARM </s> -0.3010
-0.3010 ASK A -0.1761
-0.3010 ASTRO </s> -0.3010
-0.3010 BACKWARDS </s> -0.3010
-0.7782 BASE BACKWARDS 0.0000
-0.7782 BASE FORWARDS 0.0000
-0.7782 BASE TO -0.1761
-1.2041 CANCEL ALL 0.0000
-1.2041 CANCEL GRIPPER 0.0000
-1.2041 CANCEL HEAD -0.2553
-1.2041 CANCEL NAVIGATION 0.0000
-1.2041 CANCEL QUESTION 0.0000
-1.2041 CANCEL RAPIDPBD 0.0000
-1.2041 CANCEL TIMER 0.0000
-1.2041 CANCEL TORSO -0.2218
-0.3010 CLOSE GRIPPER 0.0000
-0.3010 DISPLAY MESSAGE 0.0000
-0.3010 DOWN </s> -0.3010
-0.3010 FOR OBJECT 0.0000
-0.3010 FORWARDS </s> -0.3010
-0.3010 GO TO -0.1761
-0.3010 GOALS </s> -0.3010
-0.3010 GOOD MORNING 0.0000
-0.3010 GOODBYE </s> -0.3010
-0.3010 GRASP OBJECT 0.0000
-0.3010 GRIPPER </s> -0.3010
-1.0000 HEAD </s> -0.3010
-1.0000 HEAD DOWN 0.0000
-1.0000 HEAD LEFT 0.0000
-1.0000 HEAD RIGHT 0.0000
-1.0000 HEAD UP 0.0000
-0.6021 HELLO </s> -0.3010
-0.6021 HELLO ASTRO 0.0000
-0.3010 HOW ARE 0.0000
-0.3010 LEFT </s> -0.3010
-0.3010 LOCATION </s> -0.3010
-0.9031 LOOK DOWN 0.0000
-0.9031 LOOK LEFT 0.0000
-0.9031 LOOK RIGHT 0.0000
-0.9031 LOOK UP 0.0000
-0.3010 MESSAGE </s> -0.3010
-0.3010 MORNING </s> -0.3010
-0.7782 MOVE BASE 0.0000
-0.6532 MOVE HEAD -0.0792
-0.9542 MOVE TORSO -0.1249
-0.3010 NAVIGATION </s> -0.3010
-0.3010 OBJECT </s> -0.3010
-0.3010 OPEN GRIPPER 0.0000
-0.3010 PROGRAM </s> -0.3010
-0.3010 QUESTION </s> -0.3010
-0.3010 RAPIDPBD PROGRAM 0.0000
-0.3010 REACH FOR 0.0000
-0.3010 RELEASE OBJECT 0.0000
-0.3010 RIGHT </s> -0.3010
-0.3010 RUN RAPIDPBD 0.0000
-0.9031 SAY GOOD 0.0000
-0.9031 SAY GOODBYE 0.0000
-0.9031 SAY HELLO -0.1761
-0.9031 SAY HOW 0.0000
-0.3010 STOP </s> -0.3010
-0.3010 TIMER </s> -0.3010
-0.6021 TO A -0.1761
-0.6021 TO LOCATION 0.0000
-0.7782 TORSO </s> -0.3010
-0.7782 TORSO DOWN 0.0000
-0.7782 TORSO UP 0.0000
-0.3010 TUCK ARM 0.0000
-0.6021 TURN LEFT 0.0000
-0.6021 TURN RIGHT 0.0000
-0.3010 UN-TUCK ARM 0.0000
-0.3010 UP </s> -0.3010
-0.3010 WAIT </s> -0.3010
-0.3010 YOU </s> -0.3010

\3-grams:
-0.3010 <s> ASK A
-1.2041 <s> CANCEL ALL
-1.2041 <s> CANCEL GRIPPER
-1.2041 <s> CANCEL HEAD
-1.2041 <s> CANCEL NAVIGATION
-1.2041 <s> CANCEL QUESTION
-1.2041 <s> CANCEL RAPIDPBD
-1.2041 <s> CANCEL TIMER
-1.2041 <s> CANCEL TORSO
-0.3010 <s> CLOSE GRIPPER
-0.3010 <s> DISPLAY MESSAGE
-0.3010 <s> GO TO
-0.3010 <s> GRASP OBJECT
-0.3010 <s> HELLO ASTRO
-0.9031 <s> LOOK DOWN
-0.9031 <s> LOOK LEFT
-0.9031 <s> LOOK RIGHT
-0.9031 <s> LOOK UP
-0.7782 <s> MOVE BASE
-0.6532 <s> MOVE HEAD
-0.9542 <s> MOVE TORSO
-0.3010 <s> OPEN GRIPPER
-0.3010 <s> REACH FOR
-0.3010 <s> RELEASE OBJECT
-0.3010 <s> RUN RAPIDPBD
-0.9031 <s> SAY GOOD
-0.9031 <s> SAY GOODBYE
-0.9031 <s> SAY HELLO
-0.9031 <s> SAY HOW
-0.3010 <s> STOP </s>
-0.3010 <s> TUCK ARM
-0.6021 <s> TURN LEFT
-0.6021 <s> TURN RIGHT
-0.3010 <s> UN-TUCK ARM
-0.3010 <s> WAIT </s>
-0.3010 A LOCATION </s>
-0.3010 A QUESTION </s>
-0.3010 ALL GOALS </s>
-0.3010 ARE YOU </s>
-0.3010 ASK A QUESTION
-0.3010 BASE BACKWARDS </s>
-0.3010 BASE FORWARDS </s>
-0.3010 BASE TO A
-0.3010 CANCEL ALL GOALS
-0.3010 CANCEL GRIPPER </s>
-0.3010 CANCEL HEAD </s>
-0.3010 CANCEL NAVIGATION </s>
-0.3010 CANCEL QUESTION </s>
-0.3010 CANCEL RAPIDPBD PROGRAM
-0.3010 CANCEL TIMER </s>
-0.3010 CANCEL TORSO </s>
-0.3010 CLOSE GRIPPER </s>
-0.3010 DISPLAY MESSAGE </s>
-0.3010 FOR OBJECT </s>
-0.3010 GO TO LOCATION
-0.3010 GOOD MORNING </s>
-0.3010 GRASP OBJECT </s>
-0.3010 HEAD DOWN </s>
-0.3010 HEAD LEFT </s>
-0.3010 HEAD RIGHT </s>
-0.3010 HEAD UP </s>
-0.3010 HELLO ASTRO </s>
-0.3010 HOW ARE YOU
-0.3010 LOOK DOWN </s>
-0.3010 LOOK LEFT </s>
-0.3010 LOOK RIGHT </s>
-0.3010 LOOK UP </s>
-0.7782 MOVE BASE BACKWARDS
-0.7782 MOVE BASE FORWARDS
-0.7782 MOVE BASE TO
-0.9031 MOVE HEAD DOWN
-0.9031 MOVE HEAD LEFT
-0.9031 MOVE HEAD RIGHT
-0.9031 MOVE HEAD UP
-0.6021 MOVE TORSO DOWN
-0.6021 MOVE TORSO UP
-0.3010 OPEN GRIPPER </s>
-0.3010 RAPIDPBD PROGRAM </s>
-0.3010 REACH FOR OBJECT
-0.3010 RELEASE OBJECT </s>
-0.3010 RUN RAPIDPBD PROGRAM
-0.3010 SAY GOOD MORNING
-0.3010 SAY GOODBYE </s>
-0.3010 SAY HELLO </s>
-0.3010 SAY HOW ARE
-0.3010 TO A LOCATION
-0.3010 TO LOCATION </s>
-0.3010 TORSO DOWN </s>
-0.3010 TORSO UP </s>
-0.3010 TUCK ARM </s>
-0.3010 TURN LEFT </s>
-0.3010 TURN RIGHT </s>
-0.3010 UN-TUCK ARM </s>

\end\
