Language model created by QuickLM on Tue Aug 21 20:27:59 EDT 2018
Copyright (c) 1996-2010 Carnegie Mellon University and Alexander I. Rudnicky

The model is in standard ARPA format, designed by Doug Paul while he was at MITRE.

The code that was used to produce this language model is available in Open Source.
Please visit http://www.speech.cs.cmu.edu/tools/ for more information

The (fixed) discount mass is 0.5. The backoffs are computed using the ratio method.
This model based on a corpus of 41 sentences and 52 words

\data\
ngram 1=52
ngram 2=97
ngram 3=111

\1-grams:
-1.0346 </s> -0.3010
-1.0346 <s> -0.2568
-2.3464 A -0.2971
-2.6474 ALL -0.3001
-2.6474 ARE -0.3001
-2.3464 ARM -0.2590
-2.6474 ASK -0.2991
-1.0346 ASTRO -0.2136
-2.6474 BACKWARDS -0.2590
-2.1703 BASE -0.2971
-1.7443 CANCEL -0.2831
-2.6474 CLOSE -0.2981
-2.6474 DISPLAY -0.3001
-2.1703 DOWN -0.2590
-2.6474 FOR -0.2981
-2.6474 FORWARDS -0.2590
-2.6474 GO -0.2991
-2.6474 GOALS -0.2590
-2.6474 GOOD -0.3001
-2.6474 GOODBYE -0.2590
-2.6474 GRASP -0.2981
-2.1703 GRIPPER -0.2590
-1.9484 HEAD -0.2458
-2.3464 HELLO -0.2124
-2.6474 HOW -0.3001
-2.1703 LEFT -0.2590
-2.3464 LOCATION -0.2590
-2.0453 LOOK -0.2891
-2.6474 MESSAGE -0.2590
-2.6474 MORNING -0.2590
-1.6931 MOVE -0.2901
-2.6474 NAVIGATION -0.2590
-2.1703 OBJECT -0.2590
-2.6474 OPEN -0.2981
-2.3464 PROGRAM -0.2590
-2.3464 QUESTION -0.2590
-2.3464 RAPIDPBD -0.2991
-2.6474 REACH -0.3001
-2.6474 RELEASE -0.2981
-2.1703 RIGHT -0.2590
-2.6474 RUN -0.2991
-2.0453 SAY -0.2961
-2.6474 STOP -0.2590
-2.6474 TIMER -0.2590
-2.3464 TO -0.2971
-2.1703 TORSO -0.2524
-2.6474 TUCK -0.2991
-2.3464 TURN -0.2951
-2.6474 UN-TUCK -0.2991
-2.1703 UP -0.2590
-2.6474 WAIT -0.2590
-2.6474 YOU -0.2590

\2-grams:
-0.3118 <s> ASTRO -0.0105
-1.9138 <s> HELLO -0.1761
-0.6021 A LOCATION 0.0000
-0.6021 A QUESTION 0.0000
-0.3010 ALL GOALS 0.0000
-0.3010 ARE YOU 0.0000
-0.3010 ARM </s> -0.3010
-0.3010 ASK A -0.1761
-1.9138 ASTRO </s> -0.3010
-1.9138 ASTRO ASK 0.0000
-1.0107 ASTRO CANCEL 0.0000
-1.9138 ASTRO CLOSE 0.0000
-1.9138 ASTRO DISPLAY 0.0000
-1.9138 ASTRO GO 0.0000
-1.9138 ASTRO GRASP 0.0000
-1.3118 ASTRO LOOK 0.0000
-0.9596 ASTRO MOVE 0.0000
-1.9138 ASTRO OPEN 0.0000
-1.9138 ASTRO REACH 0.0000
-1.9138 ASTRO RELEASE 0.0000
-1.9138 ASTRO RUN 0.0000
-1.3118 ASTRO SAY 0.0000
-1.9138 ASTRO STOP 0.0000
-1.9138 ASTRO TUCK 0.0000
-1.6128 ASTRO TURN 0.0000
-1.9138 ASTRO UN-TUCK 0.0000
-1.9138 ASTRO WAIT 0.0000
-0.3010 BACKWARDS </s> -0.3010
-0.7782 BASE BACKWARDS 0.0000
-0.7782 BASE FORWARDS 0.0000
-0.7782 BASE TO -0.1761
-1.2041 CANCEL ALL 0.0000
-1.2041 CANCEL GRIPPER 0.0000
-1.2041 CANCEL HEAD -0.2553
-1.2041 CANCEL NAVIGATION 0.0000
-1.2041 CANCEL QUESTION 0.0000
-1.2041 CANCEL RAPIDPBD 0.0000
-1.2041 CANCEL TIMER 0.0000
-1.2041 CANCEL TORSO -0.2218
-0.3010 CLOSE GRIPPER 0.0000
-0.3010 DISPLAY MESSAGE 0.0000
-0.3010 DOWN </s> -0.3010
-0.3010 FOR OBJECT 0.0000
-0.3010 FORWARDS </s> -0.3010
-0.3010 GO TO -0.1761
-0.3010 GOALS </s> -0.3010
-0.3010 GOOD MORNING 0.0000
-0.3010 GOODBYE </s> -0.3010
-0.3010 GRASP OBJECT 0.0000
-0.3010 GRIPPER </s> -0.3010
-1.0000 HEAD </s> -0.3010
-1.0000 HEAD DOWN 0.0000
-1.0000 HEAD LEFT 0.0000
-1.0000 HEAD RIGHT 0.0000
-1.0000 HEAD UP 0.0000
-0.6021 HELLO </s> -0.3010
-0.6021 HELLO ASTRO -0.2957
-0.3010 HOW ARE 0.0000
-0.3010 LEFT </s> -0.3010
-0.3010 LOCATION </s> -0.3010
-0.9031 LOOK DOWN 0.0000
-0.9031 LOOK LEFT 0.0000
-0.9031 LOOK RIGHT 0.0000
-0.9031 LOOK UP 0.0000
-0.3010 MESSAGE </s> -0.3010
-0.3010 MORNING </s> -0.3010
-0.7782 MOVE BASE 0.0000
-0.6532 MOVE HEAD -0.0792
-0.9542 MOVE TORSO -0.1249
-0.3010 NAVIGATION </s> -0.3010
-0.3010 OBJECT </s> -0.3010
-0.3010 OPEN GRIPPER 0.0000
-0.3010 PROGRAM </s> -0.3010
-0.3010 QUESTION </s> -0.3010
-0.3010 RAPIDPBD PROGRAM 0.0000
-0.3010 REACH FOR 0.0000
-0.3010 RELEASE OBJECT 0.0000
-0.3010 RIGHT </s> -0.3010
-0.3010 RUN RAPIDPBD 0.0000
-0.9031 SAY GOOD 0.0000
-0.9031 SAY GOODBYE 0.0000
-0.9031 SAY HELLO -0.1761
-0.9031 SAY HOW 0.0000
-0.3010 STOP </s> -0.3010
-0.3010 TIMER </s> -0.3010
-0.6021 TO A -0.1761
-0.6021 TO LOCATION 0.0000
-0.7782 TORSO </s> -0.3010
-0.7782 TORSO DOWN 0.0000
-0.7782 TORSO UP 0.0000
-0.3010 TUCK ARM 0.0000
-0.6021 TURN LEFT 0.0000
-0.6021 TURN RIGHT 0.0000
-0.3010 UN-TUCK ARM 0.0000
-0.3010 UP </s> -0.3010
-0.3010 WAIT </s> -0.3010
-0.3010 YOU </s> -0.3010

\3-grams:
-1.9031 <s> ASTRO ASK
-1.0000 <s> ASTRO CANCEL
-1.9031 <s> ASTRO CLOSE
-1.9031 <s> ASTRO DISPLAY
-1.9031 <s> ASTRO GO
-1.9031 <s> ASTRO GRASP
-1.3010 <s> ASTRO LOOK
-0.9488 <s> ASTRO MOVE
-1.9031 <s> ASTRO OPEN
-1.9031 <s> ASTRO REACH
-1.9031 <s> ASTRO RELEASE
-1.9031 <s> ASTRO RUN
-1.3010 <s> ASTRO SAY
-1.9031 <s> ASTRO STOP
-1.9031 <s> ASTRO TUCK
-1.6021 <s> ASTRO TURN
-1.9031 <s> ASTRO UN-TUCK
-1.9031 <s> ASTRO WAIT
-0.3010 <s> HELLO ASTRO
-0.3010 A LOCATION </s>
-0.3010 A QUESTION </s>
-0.3010 ALL GOALS </s>
-0.3010 ARE YOU </s>
-0.3010 ASK A QUESTION
-0.3010 ASTRO ASK A
-1.2041 ASTRO CANCEL ALL
-1.2041 ASTRO CANCEL GRIPPER
-1.2041 ASTRO CANCEL HEAD
-1.2041 ASTRO CANCEL NAVIGATION
-1.2041 ASTRO CANCEL QUESTION
-1.2041 ASTRO CANCEL RAPIDPBD
-1.2041 ASTRO CANCEL TIMER
-1.2041 ASTRO CANCEL TORSO
-0.3010 ASTRO CLOSE GRIPPER
-0.3010 ASTRO DISPLAY MESSAGE
-0.3010 ASTRO GO TO
-0.3010 ASTRO GRASP OBJECT
-0.9031 ASTRO LOOK DOWN
-0.9031 ASTRO LOOK LEFT
-0.9031 ASTRO LOOK RIGHT
-0.9031 ASTRO LOOK UP
-0.7782 ASTRO MOVE BASE
-0.6532 ASTRO MOVE HEAD
-0.9542 ASTRO MOVE TORSO
-0.3010 ASTRO OPEN GRIPPER
-0.3010 ASTRO REACH FOR
-0.3010 ASTRO RELEASE OBJECT
-0.3010 ASTRO RUN RAPIDPBD
-0.9031 ASTRO SAY GOOD
-0.9031 ASTRO SAY GOODBYE
-0.9031 ASTRO SAY HELLO
-0.9031 ASTRO SAY HOW
-0.3010 ASTRO STOP </s>
-0.3010 ASTRO TUCK ARM
-0.6021 ASTRO TURN LEFT
-0.6021 ASTRO TURN RIGHT
-0.3010 ASTRO UN-TUCK ARM
-0.3010 ASTRO WAIT </s>
-0.3010 BASE BACKWARDS </s>
-0.3010 BASE FORWARDS </s>
-0.3010 BASE TO A
-0.3010 CANCEL ALL GOALS
-0.3010 CANCEL GRIPPER </s>
-0.3010 CANCEL HEAD </s>
-0.3010 CANCEL NAVIGATION </s>
-0.3010 CANCEL QUESTION </s>
-0.3010 CANCEL RAPIDPBD PROGRAM
-0.3010 CANCEL TIMER </s>
-0.3010 CANCEL TORSO </s>
-0.3010 CLOSE GRIPPER </s>
-0.3010 DISPLAY MESSAGE </s>
-0.3010 FOR OBJECT </s>
-0.3010 GO TO LOCATION
-0.3010 GOOD MORNING </s>
-0.3010 GRASP OBJECT </s>
-0.3010 HEAD DOWN </s>
-0.3010 HEAD LEFT </s>
-0.3010 HEAD RIGHT </s>
-0.3010 HEAD UP </s>
-0.3010 HELLO ASTRO </s>
-0.3010 HOW ARE YOU
-0.3010 LOOK DOWN </s>
-0.3010 LOOK LEFT </s>
-0.3010 LOOK RIGHT </s>
-0.3010 LOOK UP </s>
-0.7782 MOVE BASE BACKWARDS
-0.7782 MOVE BASE FORWARDS
-0.7782 MOVE BASE TO
-0.9031 MOVE HEAD DOWN
-0.9031 MOVE HEAD LEFT
-0.9031 MOVE HEAD RIGHT
-0.9031 MOVE HEAD UP
-0.6021 MOVE TORSO DOWN
-0.6021 MOVE TORSO UP
-0.3010 OPEN GRIPPER </s>
-0.3010 RAPIDPBD PROGRAM </s>
-0.3010 REACH FOR OBJECT
-0.3010 RELEASE OBJECT </s>
-0.3010 RUN RAPIDPBD PROGRAM
-0.3010 SAY GOOD MORNING
-0.3010 SAY GOODBYE </s>
-0.3010 SAY HELLO </s>
-0.3010 SAY HOW ARE
-0.3010 TO A LOCATION
-0.3010 TO LOCATION </s>
-0.3010 TORSO DOWN </s>
-0.3010 TORSO UP </s>
-0.3010 TUCK ARM </s>
-0.3010 TURN LEFT </s>
-0.3010 TURN RIGHT </s>
-0.3010 UN-TUCK ARM </s>

\end\
